//Numpy array shape [32, 10]
//Min -2.221990108490
//Max 1.570780038834
//Number of zeros 0

#ifndef W3_H_
#define W3_H_

#ifndef __SYNTHESIS__
model_default_t w3[320];
#else
model_default_t w3[320] = {-0.5040805340, 0.9995768070, 1.1745806932, 0.1623535305, -0.0980016887, -0.4080311060, 0.2248107195, 0.3274670243, -0.0739543885, -0.8726845384, -0.1377350241, -0.7326124907, -0.3354390860, 0.5430348516, 0.2609913349, -0.0869408622, -0.4950329363, -0.6141510606, 0.2937235534, 0.3101698160, 0.9711527824, -0.7337982059, -0.3980485499, 0.2171926200, 0.0501535460, 0.3863074780, -0.1821930856, 0.1140955240, -0.9281347394, 0.8244205117, -0.4365833998, -0.4298331738, -0.5430666804, 0.1701299995, -0.3616564274, 1.3757590055, 1.3913213015, -0.7009451985, -0.1705581099, -0.0580231585, 0.2747379839, -0.4442766011, 0.2753482163, 0.9499765635, 0.3280398846, 0.0595264137, -0.8454186320, 0.3282256722, -0.3826486766, -0.6641525030, 0.0782597810, -1.2249525785, -0.0230436940, -0.0025737826, 0.0208761077, -0.0189190451, 0.6030400395, -1.0827047825, 0.9182822108, 1.0917899609, 0.4265986085, -1.0068998337, 0.1905414760, 0.0592564195, 0.1667625159, -0.0000610376, 0.4200584888, 0.7852113843, -0.1456608027, 0.0356992856, 0.7405321002, -0.2880916893, 0.2591892779, -0.2828296125, -0.6878886223, 0.6658745408, 1.0182133913, 0.0064550284, -0.7644543648, 0.0341594182, -2.2219901085, -0.1509560943, 0.2760785520, -0.5553388596, 0.9016540647, 0.0761284977, 0.5106163621, 0.0500730351, -0.1899608821, 0.7272834778, -1.5178154707, 0.7485592961, 0.0321818702, 0.3560843468, -0.9396017194, 0.7180900574, -1.1464905739, 0.6529716849, -0.1280610263, 0.1677850783, -0.6008087993, 0.6268023252, -0.6353728771, 0.4480125606, -0.9377354980, -0.6229519248, -0.3537695706, 0.3430817723, 0.8107130527, 0.8560325503, -0.7292615175, 1.0813570023, -0.7327535748, 1.5707800388, -0.4224948883, 0.9212520719, -0.7000955939, 0.1108550057, -0.9639350772, -0.5308735967, 0.1888585389, -0.7847394347, 0.2947862446, 0.2897981107, 0.1521036178, 0.1998166740, -0.4869199991, 0.6764025688, 0.2278497070, 0.1691397429, -0.1046599075, -0.4864170551, 0.3610894978, 0.0392743498, 0.2148992121, -0.2014289051, -0.8174677491, 0.8812975287, -0.1525619626, -0.0615795106, -0.4977291524, 0.4828938246, -0.7184348106, -0.6946503520, 0.7652333379, 0.6640325189, -0.8128842115, 0.6156864762, -0.0960172564, 0.0990210250, -0.3305438757, 0.7227879763, 0.4117136896, 0.2944333255, -0.7843703628, 0.0419294685, 0.2065238059, -0.5162264109, -0.4748863876, 0.3478061855, 0.2134411931, 0.9091150165, -0.7778456807, 0.3761204779, 0.1187637374, 0.6601925492, 0.3581317961, -1.2378422022, 0.5342402458, -0.9961202741, -0.8883798718, 0.4812154770, 1.0839136839, -0.7766057253, -0.6150305271, 0.3053461611, 0.6372305155, 0.1777575612, -0.1943413764, -0.6329037547, -0.3039764762, 0.1824444532, -0.2741975188, -0.2955517769, 1.0436437130, -0.3866599500, -0.5863676071, 0.5235797167, 0.0307424273, 0.3379371166, 0.6057752371, 0.2345223576, -0.7513328791, -0.4082157910, 1.0716098547, -0.4017265439, 0.7718881965, -0.2361357063, -0.1935976148, -0.6959810853, 0.2116169780, 0.5827845931, -0.1309618950, 0.1267028451, 0.2637828588, -0.1268694997, -0.3864210844, -0.6815295219, -0.1590618044, -0.0533645116, 0.7518432736, -0.4118437767, -0.3892298639, -0.3952355683, 0.4665272236, 0.1440944672, 0.4178990424, -0.0849878415, -0.7593998313, 0.6780324578, 0.2483095527, -0.3681900799, 0.7742244005, 0.2021337599, -0.6119074225, 0.5489146709, -0.7453127503, 0.1993902326, -0.0457010716, 0.8217527866, 0.8268163800, -0.4821071327, 0.0871366560, -0.4005628824, -0.2191654146, -0.1309304386, -0.0496768914, -0.2415796220, 0.2882473171, 0.0689319819, -0.4156447649, 0.6950312853, 0.1205056682, -0.8059154749, 0.1492778659, -0.4195904732, 0.4705805779, 1.2310628891, -0.3086582124, 0.6926339865, 0.6553121209, 0.1328838915, 0.5661436915, -0.1059476659, -0.7757967114, -1.1385730505, 0.9564078450, 0.5520521402, 0.9240217805, -1.0255984068, 0.9394068122, -0.6223992109, 1.0241951942, -0.6551312208, -0.5022491813, 0.6602576971, 0.1287070215, -0.2618534565, -0.0115469629, -0.5199785233, 0.0421158224, 1.0743921995, 0.5607009530, -0.5261147618, 0.1446061730, 0.1062492579, -0.1078658774, -1.6114015579, 0.5774852037, 0.6283403039, 0.7135682702, -0.0320165753, -0.9358088374, -0.7849260569, 0.2383441031, 0.5599275231, 0.5718411207, 0.0227663033, 0.6740074158, -0.3671153784, 0.0554553233, -0.8299757838, -0.5373598337, 0.2720494866, -0.9644126892, 0.7768989205, 0.4579762518, -1.2166826725, 0.9865828156, 0.1368760616, -0.0263272971, 0.7777050138, 0.4469075799, 0.3541497588, -0.5757026076, 0.5093474984, 0.6327400208, -0.9260501862, 0.5072273612, -0.6434499025, -0.3340307772, 0.8454830647, 0.9105076194, 0.1014189944, 0.4864741862, -0.5238457918, 0.7131345272, -0.4832213521, -0.9428600669, 0.4560323954};
#endif

#endif
